<?xml version="1.0"?>
<opencv_storage>
<cascade>
  <stageType>BOOST</stageType>
  <featureType>LBP</featureType>
  <height>64</height>
  <width>48</width>
  <stageParams>
    <boostType>GAB</boostType>
    <minHitRate>9.9500000476837158e-01</minHitRate>
    <maxFalseAlarm>5.0000000000000000e-01</maxFalseAlarm>
    <weightTrimRate>9.4999999999999996e-01</weightTrimRate>
    <maxDepth>1</maxDepth>
    <maxWeakCount>100</maxWeakCount></stageParams>
  <featureParams>
    <maxCatCount>256</maxCatCount>
    <featSize>1</featSize></featureParams>
  <stageNum>2</stageNum>
  <stages>
    <!-- stage 0 -->
    <_>
      <maxWeakCount>1</maxWeakCount>
      <stageThreshold>1.</stageThreshold>
      <weakClassifiers>
        <_>
          <internalNodes>
            0 -1 2 -194920309 1107345408 0 65537 8421440 2 -2147467132
            -802717041</internalNodes>
          <leafValues>
            -1. 1.</leafValues></_></weakClassifiers></_>
    <!-- stage 1 -->
    <_>
      <maxWeakCount>2</maxWeakCount>
      <stageThreshold>-5.9142380952835083e-02</stageThreshold>
      <weakClassifiers>
        <_>
          <internalNodes>
            0 -1 0 -1845364394 -801046524 81920 1090584576 -2147417918
            159383680 302 -652588735</internalNodes>
          <leafValues>
            -9.7560977935791016e-01 9.1666668653488159e-01</leafValues></_>
        <_>
          <internalNodes>
            0 -1 1 -972308221 1375928320 1 16384 -1879031806 2097152
            147456 -527974005</internalNodes>
          <leafValues>
            -9.7580903768539429e-01 9.3625092506408691e-01</leafValues></_></weakClassifiers></_></stages>
  <features>
    <_>
      <rect>
        2 7 9 12</rect></_>
    <_>
      <rect>
        4 32 1 7</rect></_>
    <_>
      <rect>
        4 37 1 4</rect></_></features></cascade>
</opencv_storage>
